<?xml version="1.0"?>
<opencv_storage>
<stage5>
  <maxWeakCount>6</maxWeakCount>
  <stageThreshold>-1.0357664823532104e+00</stageThreshold>
  <weakClassifiers>
    <_>
      <internalNodes>
        0 -1 52791 9.3348491936922073e-03</internalNodes>
      <leafValues>
        5.9925323724746704e-01 -8.9761090278625488e-01</leafValues></_>
    <_>
      <internalNodes>
        0 -1 53758 -6.4507983624935150e-03</internalNodes>
      <leafValues>
        5.3440636396408081e-01 -4.4898560643196106e-01</leafValues></_>
    <_>
      <internalNodes>
        0 -1 64385 -4.2928350158035755e-03</internalNodes>
      <leafValues>
        -7.3578792810440063e-01 3.7380629777908325e-01</leafValues></_>
    <_>
      <internalNodes>
        0 -1 47986 -2.7628354728221893e-03</internalNodes>
      <leafValues>
        -8.8393992185592651e-01 1.7278026044368744e-01</leafValues></_>
    <_>
      <internalNodes>
        0 -1 74847 -2.5967403780668974e-04</internalNodes>
      <leafValues>
        -7.2849172353744507e-01 2.3030599951744080e-01</leafValues></_>
    <_>
      <internalNodes>
        0 -1 67864 1.3490008190274239e-02</internalNodes>
      <leafValues>
        2.0338769257068634e-01 -8.5687935352325439e-01</leafValues></_></weakClassifiers></stage5>
</opencv_storage>
